<?xml version="1.0"?>
<opencv_storage>
<cascade>
  <stageType>BOOST</stageType>
  <featureType>HAAR</featureType>
  <height>50</height>
  <width>50</width>
  <stageParams>
    <boostType>GAB</boostType>
    <minHitRate>9.9500000476837158e-01</minHitRate>
    <maxFalseAlarm>5.0000000000000000e-01</maxFalseAlarm>
    <weightTrimRate>9.4999998807907104e-01</weightTrimRate>
    <maxDepth>1</maxDepth>
    <maxWeakCount>100</maxWeakCount></stageParams>
  <featureParams>
    <maxCatCount>0</maxCatCount>
    <featSize>1</featSize>
    <mode>BASIC</mode></featureParams>
  <stageNum>6</stageNum>
  <stages>
    <!-- stage 0 -->
    <_>
      <maxWeakCount>3</maxWeakCount>
      <stageThreshold>-1.1859346628189087e+00</stageThreshold>
      <weakClassifiers>
        <_>
          <internalNodes>
            0 -1 11 5.1751891151070595e-03</internalNodes>
          <leafValues>
            -9.9550563097000122e-01 1.</leafValues></_>
        <_>
          <internalNodes>
            0 -1 10 5.9892241843044758e-03</internalNodes>
          <leafValues>
            -9.8906064033508301e-01 9.3397539854049683e-01</leafValues></_>
        <_>
          <internalNodes>
            0 -1 14 -5.8220960199832916e-03</internalNodes>
          <leafValues>
            7.9863154888153076e-01 -9.8260587453842163e-01</leafValues></_></weakClassifiers></_>
    <!-- stage 1 -->
    <_>
      <maxWeakCount>4</maxWeakCount>
      <stageThreshold>-2.3155043125152588e+00</stageThreshold>
      <weakClassifiers>
        <_>
          <internalNodes>
            0 -1 9 -3.0275203287601471e-02</internalNodes>
          <leafValues>
            1. -9.9103140830993652e-01</leafValues></_>
        <_>
          <internalNodes>
            0 -1 18 5.0465483218431473e-03</internalNodes>
          <leafValues>
            -9.6778589487075806e-01 8.3174258470535278e-01</leafValues></_>
        <_>
          <internalNodes>
            0 -1 2 -5.9299428015947342e-02</internalNodes>
          <leafValues>
            8.1648647785186768e-01 -9.3274021148681641e-01</leafValues></_>
        <_>
          <internalNodes>
            0 -1 7 -2.2582979872822762e-03</internalNodes>
          <leafValues>
            5.7605308294296265e-01 -9.5051103830337524e-01</leafValues></_></weakClassifiers></_>
    <!-- stage 2 -->
    <_>
      <maxWeakCount>3</maxWeakCount>
      <stageThreshold>-1.6491233110427856e+00</stageThreshold>
      <weakClassifiers>
        <_>
          <internalNodes>
            0 -1 19 -3.1739458441734314e-02</internalNodes>
          <leafValues>
            1. -9.8805969953536987e-01</leafValues></_>
        <_>
          <internalNodes>
            0 -1 12 -9.7027979791164398e-03</internalNodes>
          <leafValues>
            5.0467646121978760e-01 -9.5728927850723267e-01</leafValues></_>
        <_>
          <internalNodes>
            0 -1 15 -2.5661587715148926e-02</internalNodes>
          <leafValues>
            2.9622566699981689e-01 -9.8543566465377808e-01</leafValues></_></weakClassifiers></_>
    <!-- stage 3 -->
    <_>
      <maxWeakCount>3</maxWeakCount>
      <stageThreshold>-1.7272114753723145e+00</stageThreshold>
      <weakClassifiers>
        <_>
          <internalNodes>
            0 -1 0 -1.3853552937507629e-01</internalNodes>
          <leafValues>
            1.6666667163372040e-01 -9.9026948213577271e-01</leafValues></_>
        <_>
          <internalNodes>
            0 -1 13 7.2183804586529732e-03</internalNodes>
          <leafValues>
            -9.6624946594238281e-01 3.2521727681159973e-01</leafValues></_>
        <_>
          <internalNodes>
            0 -1 16 -7.1341283619403839e-03</internalNodes>
          <leafValues>
            3.2013812661170959e-01 -9.2762869596481323e-01</leafValues></_></weakClassifiers></_>
    <!-- stage 4 -->
    <_>
      <maxWeakCount>4</maxWeakCount>
      <stageThreshold>-2.3312387466430664e+00</stageThreshold>
      <weakClassifiers>
        <_>
          <internalNodes>
            0 -1 1 2.6635821908712387e-02</internalNodes>
          <leafValues>
            -9.8879760503768921e-01 6.6666668653488159e-01</leafValues></_>
        <_>
          <internalNodes>
            0 -1 6 -2.6466064155101776e-02</internalNodes>
          <leafValues>
            -8.5591361857950687e-04 -9.8121500015258789e-01</leafValues></_>
        <_>
          <internalNodes>
            0 -1 4 -1.2482653558254242e-01</internalNodes>
          <leafValues>
            4.7683385014533997e-01 -8.9860838651657104e-01</leafValues></_>
        <_>
          <internalNodes>
            0 -1 8 -2.3718599230051041e-02</internalNodes>
          <leafValues>
            5.3738230466842651e-01 -9.1768378019332886e-01</leafValues></_></weakClassifiers></_>
    <!-- stage 5 -->
    <_>
      <maxWeakCount>3</maxWeakCount>
      <stageThreshold>-1.5958266258239746e+00</stageThreshold>
      <weakClassifiers>
        <_>
          <internalNodes>
            0 -1 17 2.9943834990262985e-02</internalNodes>
          <leafValues>
            -9.9028766155242920e-01 1.</leafValues></_>
        <_>
          <internalNodes>
            0 -1 3 9.0427901595830917e-03</internalNodes>
          <leafValues>
            -9.7823739051818848e-01 3.8443380594253540e-01</leafValues></_>
        <_>
          <internalNodes>
            0 -1 5 -7.2237893939018250e-02</internalNodes>
          <leafValues>
            4.1569909453392029e-01 -9.8997277021408081e-01</leafValues></_></weakClassifiers></_></stages>
  <features>
    <_>
      <rects>
        <_>
          1 2 48 7 -1.</_>
        <_>
          17 2 16 7 3.</_></rects>
      <tilted>0</tilted></_>
    <_>
      <rects>
        <_>
          1 12 6 16 -1.</_>
        <_>
          3 12 2 16 3.</_></rects>
      <tilted>0</tilted></_>
    <_>
      <rects>
        <_>
          1 43 48 4 -1.</_>
        <_>
          17 43 16 4 3.</_></rects>
      <tilted>0</tilted></_>
    <_>
      <rects>
        <_>
          6 38 8 10 -1.</_>
        <_>
          6 38 4 5 2.</_>
        <_>
          10 43 4 5 2.</_></rects>
      <tilted>0</tilted></_>
    <_>
      <rects>
        <_>
          8 0 31 21 -1.</_>
        <_>
          8 7 31 7 3.</_></rects>
      <tilted>0</tilted></_>
    <_>
      <rects>
        <_>
          8 27 31 21 -1.</_>
        <_>
          8 34 31 7 3.</_></rects>
      <tilted>0</tilted></_>
    <_>
      <rects>
        <_>
          8 28 6 18 -1.</_>
        <_>
          8 34 6 6 3.</_></rects>
      <tilted>0</tilted></_>
    <_>
      <rects>
        <_>
          9 27 6 6 -1.</_>
        <_>
          9 27 3 3 2.</_>
        <_>
          12 30 3 3 2.</_></rects>
      <tilted>0</tilted></_>
    <_>
      <rects>
        <_>
          10 3 8 40 -1.</_>
        <_>
          14 3 4 40 2.</_></rects>
      <tilted>0</tilted></_>
    <_>
      <rects>
        <_>
          11 25 9 9 -1.</_>
        <_>
          14 25 3 9 3.</_></rects>
      <tilted>0</tilted></_>
    <_>
      <rects>
        <_>
          12 15 4 8 -1.</_>
        <_>
          12 15 2 4 2.</_>
        <_>
          14 19 2 4 2.</_></rects>
      <tilted>0</tilted></_>
    <_>
      <rects>
        <_>
          18 20 3 13 -1.</_>
        <_>
          19 20 1 13 3.</_></rects>
      <tilted>0</tilted></_>
    <_>
      <rects>
        <_>
          21 1 9 4 -1.</_>
        <_>
          21 3 9 2 2.</_></rects>
      <tilted>0</tilted></_>
    <_>
      <rects>
        <_>
          24 24 4 10 -1.</_>
        <_>
          24 24 2 5 2.</_>
        <_>
          26 29 2 5 2.</_></rects>
      <tilted>0</tilted></_>
    <_>
      <rects>
        <_>
          26 23 6 7 -1.</_>
        <_>
          28 23 2 7 3.</_></rects>
      <tilted>0</tilted></_>
    <_>
      <rects>
        <_>
          27 7 16 15 -1.</_>
        <_>
          27 12 16 5 3.</_></rects>
      <tilted>0</tilted></_>
    <_>
      <rects>
        <_>
          34 39 10 10 -1.</_>
        <_>
          34 39 5 5 2.</_>
        <_>
          39 44 5 5 2.</_></rects>
      <tilted>0</tilted></_>
    <_>
      <rects>
        <_>
          35 14 6 20 -1.</_>
        <_>
          37 14 2 20 3.</_></rects>
      <tilted>0</tilted></_>
    <_>
      <rects>
        <_>
          35 19 3 10 -1.</_>
        <_>
          36 19 1 10 3.</_></rects>
      <tilted>0</tilted></_>
    <_>
      <rects>
        <_>
          36 6 12 14 -1.</_>
        <_>
          36 6 6 7 2.</_>
        <_>
          42 13 6 7 2.</_></rects>
      <tilted>0</tilted></_></features></cascade>
</opencv_storage>
